tree
version=v3
num_class=1
num_tree_per_iteration=1
label_index=0
max_feature_idx=42
objective=binary sigmoid:1
feature_names=kurt_day_mean_min_magn abs_mean_lastday_mean_magn abs_mean_lastday_min_magn energy_sstd_lastday_mean_magn energy_sstd_lastday_max_min_magn frequency_center_min_magn frequency_center_lastday_min_magn mean_square_frequency_min_magn mean_square_frequency_lastday_mean_magn mean_square_frequency_lastday_min_magn mean_square_frequency_lastday_max_min_magn frequency_entropy_max_min_magn frequency_entropy_lastday_mean_magn frequency_entropy_lastday_max_min_magn level4d_energy_lastday_mean_magn level5d_energy_lastday_max_min_magn ulf_power_lastday_max_min_magn ulf_kurt_lastday_min_magn ulf_kurt_lastday_max_min_magn ulf_energy_smax_lastday_mean_magn ulf_energy_smax_lastday_max_min_magn diff_1_lastday_max_min_magn skew_lastday_max_sound skew_lastday_min_sound kurt_max_min_sound kurt_lastday_max_min_sound abs_max_max_min_sound abs_mean_lastday_min_sound s_zero_rate_max_lastday_mean_sound power_10_15_day_mean_min_sound power_35_40_lastday_mean_sound mean_square_frequency_lastday_mean_sound mean_square_frequency_lastday_min_sound mean_square_frequency_lastday_max_min_sound frequency_entropy_lastday_mean_sound frequency_entropy_lastday_max_min_sound level6a_energy_day_mean_min_sound mean_lastday_max_min_sound PC1 PC2 PC3 PC4 PC5
feature_infos=[-1.49012213078704:-0.48326854992476798] [-1.80388559908581:0.989329429218061] [-1.89910312873859:-1.4096396654052601] [0.00064661852822290005:0.48311776912239901] [0.0036768098333333:13.80355832455] [13.70804425:66.358999999999995] [13.70804425:73.063833333333307] [0.0331954:52.622725000000003] [50.890137152777797:82.663838888888904] [0.0331954:54.995633333333302] [9.8610000000000007:144.46730460000001] [1.53948333333333:6.6297600000000001] [6.3521621180555599:7.0930394996843402] [0.70222499999999999:5.7036844999999996] [0.21454057604166701:915.63292106711799] [4.4227805:91829.828234100001] [1.1318333333333299e-06:277549.73561959999] [-1.9411799999999999:1.7141299999999999] [13.999130750000001:2467.1855500000001] [2.9816090856481498e-06:0.97341287556094502] [1.5684758333333299e-06:15.441496106184999] [0.13728575000000001:15.7271] [0.013348499999999999:21.0357348] [-40.712024999999997:-0.021710037500000001] [0.123282566666666:9340.3023900000007] [0.090718256666666497:3487.6093403] [0.0038771000000000001:21.814843204300001] [-0.039078155379775298:-0.035817945379775298] [1.80829194260486:61.799999999999997] [1.3975950772337999e-07:6.26871352601711e-06] [6.9631807953988604e-08:0.00081438900152630003] [47.005426112268502:56.174970209520403] [0.033990800000000002:53.596299999999999] [1.69736666666666:129.22421900000001] [8.8624385997171107:9.2481123784722197] [0.010849999999999501:4.1795689999999999] [0.0055158189045138003:9.70033263597991] [0.00068999999999999997:0.76130028571428499] [-6.3158989884936299:5.4668478849765396] [-2.4576648315943701:2.16696064829766] [-0.40115617089049799:3.9613941995317998] [-3.2320000749181199:1.73818060348666] [-2.12050792510095:1.6267601599880701]
tree_sizes=640 751 749 650 651 753 752 855 745 649 652 835 758 742 659 761 764

Tree=0
num_leaves=5
num_cat=0
split_feature=1 41 2 11
split_gain=81.2033 31.1809 13.6103 4.71077
threshold=0.12512662535337202 0.50914014885692016 -1.8875536579052599 4.0622636666666656
decision_type=2 2 2 2
left_child=2 3 -1 -2
right_child=1 -3 -4 -5
leaf_value=0.10434543098380686 -0.70761420215630544 0.2477116046941811 0.75054057579342337 -0.3734951458061791
leaf_weight=7.0000000000000027 17.250000000000004 8.2499999999999982 14.249999999999998 9.9999999999999982
leaf_count=28 69 33 57 40
internal_value=0 -0.392105 0.539306 -0.586601
internal_weight=0 35.5 21.25 27.25
internal_count=227 142 85 109
is_linear=0
shrinkage=0.377249


Tree=1
num_leaves=6
num_cat=0
split_feature=24 13 25 28 24
split_gain=58.8772 40.6343 8.37056 2.17589 4.00666
threshold=181.49594236416655 3.2567808333333352 49.190971156125009 31.704403582198005 65.072719508333364
decision_type=2 2 2 2 2
left_child=1 -1 3 -3 -5
right_child=-2 2 -4 4 -6
leaf_value=0.5601563669412456 0.6678727090323836 -0.67273726191002425 -0.088477177781967176 -0.62996676594940026 -0.21519926138725787
leaf_weight=7.0342245995998374 12.931444466114042 11.004230216145517 7.6779109686613074 7.2444033622741681 6.5491653233766556
leaf_count=32 55 47 34 30 29
internal_value=0 -0.257967 -0.436341 -0.542893 -0.435887
internal_weight=0 39.5099 32.4757 24.7978 13.7936
internal_count=227 172 140 106 59
is_linear=0
shrinkage=0.377249


Tree=2
num_leaves=6
num_cat=0
split_feature=16 8 1 2 16
split_gain=24.6659 22.7027 8.70817 0.722219 0.550029
threshold=8.0130158814095012 62.670093323020559 0.48951335540919705 -1.8894340654052548 1.7596936839510002
decision_type=2 2 2 2 2
left_child=1 -1 -2 -4 -3
right_child=2 4 3 -5 -6
leaf_value=-0.17075515123531121 0.039814215268165538 0.49861576129486912 -0.55638075970129375 -0.3715178441783567 0.69099712547607073
leaf_weight=9.8091755807399768 7.2133809626102474 6.8993488103151304 7.1066746413707742 8.1551816463470423 5.8232599645853043
leaf_count=50 40 39 33 39 26
internal_value=0 0.258614 -0.299265 -0.460367 0.590508
internal_weight=0 22.5318 22.4752 15.2619 12.7226
internal_count=227 115 112 72 65
is_linear=0
shrinkage=0.377249


Tree=3
num_leaves=5
num_cat=0
split_feature=24 14 16 16
split_gain=23.4984 13.9665 3.45134 0.281296
threshold=181.49594236416655 257.85793947552605 8.0130158814095012 8.6071276323795018
decision_type=2 2 2 2
left_child=1 -1 -3 -4
right_child=-2 2 3 -5
leaf_value=0.20741415981784742 0.50987003673201958 -0.075756128055177868 -0.48458480912552815 -0.35222606834213005
leaf_weight=9.3134604096412676 9.2893141284584981 5.2337221354246166 9.4875061959028226 6.1464670151472083
leaf_count=53 55 27 55 37
internal_value=0 -0.174698 -0.346228 -0.43504
internal_weight=0 30.1812 20.8677 15.634
internal_count=227 172 119 92
is_linear=0
shrinkage=0.377249


Tree=4
num_leaves=5
num_cat=0
split_feature=24 14 11 31
split_gain=13.7775 7.35101 3.03816 0.483084
threshold=181.49594236416655 257.85793947552605 4.1038959166666658 50.645577256944456
decision_type=2 2 2 2
left_child=1 -1 3 -3
right_child=-2 2 -4 -5
leaf_value=0.13978062574718803 0.45768078124334316 -0.25484227167098905 -0.024850812821096073 -0.4381327220846119
leaf_weight=8.7782976105809229 6.9451146870851508 3.9055000692605999 4.8255469501018515 8.3620494008064252
leaf_count=53 55 26 26 67
internal_value=0 -0.138867 -0.283059 -0.382583
internal_weight=0 25.8714 17.0931 12.2675
internal_count=227 172 119 93
is_linear=0
shrinkage=0.377249


Tree=5
num_leaves=6
num_cat=0
split_feature=25 13 27 10 33
split_gain=8.47573 10.0178 7.395 3.72904 0.151764
threshold=71.299050000000008 3.2567808333333352 -0.036443021213108641 91.568990000000014 13.970487500000003
decision_type=2 2 2 2 2
left_child=1 -1 -3 4 -4
right_child=-2 2 3 -5 -6
leaf_value=0.43039629709624949 0.45169675497477207 0.2423110017191446 -0.55869876489703496 -0.085761527567467008 -0.41266577240260865
leaf_weight=4.0296970568597379 4.6332460269331923 3.8385420590639177 4.1648909747600502 5.4990908131003371 5.4909019209444523
leaf_count=36 44 26 24 53 44
internal_value=0 -0.104848 -0.220229 -0.339037 -0.480152
internal_weight=0 23.0231 18.9934 15.1549 9.65579
internal_count=227 183 147 121 68
is_linear=0
shrinkage=0.377249


Tree=6
num_leaves=6
num_cat=0
split_feature=38 24 15 25 38
split_gain=8.67935 5.93275 3.85549 1.24084 0.234526
threshold=0.44357554928329856 181.49594236416655 5400.7151562087502 49.190971156125009 0.30490506265684753
decision_type=2 2 2 2 2
left_child=1 2 -1 4 -4
right_child=-2 -3 3 -5 -6
leaf_value=0.06325088903944899 0.62143082111674652 0.40615108834812669 -0.26273593786871652 -0.086991865997723031 -0.43389442947572254
leaf_weight=6.058214984834204 2.6953107230365267 2.8356148451566687 2.7543948516249639 2.970499448478221 5.592773899435997
leaf_count=49 22 41 37 27 51
internal_value=0 -0.0932605 -0.176775 -0.30663 -0.381563
internal_weight=0 20.2115 17.3759 11.3177 8.34717
internal_count=227 205 164 115 88
is_linear=0
shrinkage=0.377249


Tree=7
num_leaves=7
num_cat=0
split_feature=22 41 24 41 32 3
split_gain=4.37154 5.44912 5.46882 5.40072 1.99623 0.256515
threshold=0.037067483333333311 0.53101628402826517 88.207220975000027 0.43100932912158457 35.323130000000013 0.18716801817666853
decision_type=2 2 2 2 2 2
left_child=-1 2 5 4 -4 -2
right_child=1 -3 3 -5 -6 -7
leaf_value=0.48875685249870304 -0.23385383287239575 0.51743690392421005 0.10347831147743836 -0.29615866189886081 0.61870426906764853 -0.40896528918399516
leaf_weight=2.9960406459867981 3.3534541800618189 2.3869790229946366 2.1178651116788387 2.5186433903872967 2.4074562713503838 3.6287797689437866
leaf_count=32 32 26 41 34 21 40
internal_value=0 -0.00221822 -0.093517 0.138715 0.385465 -0.329805
internal_weight=0 16.4132 14.0262 7.04396 4.52532 6.98223
internal_count=226 194 168 96 62 72
is_linear=0
shrinkage=0.377249


Tree=8
num_leaves=6
num_cat=0
split_feature=3 6 8 4 20
split_gain=3.60733 3.32266 4.58278 3.67338 2.48886
threshold=0.23702459820181804 56.130816666666654 56.730634712780251 4.0717921358183355 8.8916148807091684
decision_type=2 2 2 2 2
left_child=1 2 -1 4 -3
right_child=-2 3 -4 -5 -6
leaf_value=-0.24473313315735423 0.52524143920463784 0.44797484031411539 0.45163856581929512 -0.38730083780490016 -0.17808589382413684
leaf_weight=1.988580286502837 2.0336363688111314 1.6876071020960792 3.8025889098644257 4.5336899356916547 1.7901826798915861
leaf_count=12 17 35 57 70 35
internal_value=0 -0.00602799 0.20924 -0.164309 0.122408
internal_weight=0 13.8026 5.79117 8.01148 3.47779
internal_count=226 209 69 140 70
is_linear=0
shrinkage=0.377249


Tree=9
num_leaves=5
num_cat=0
split_feature=0 42 34 26
split_gain=2.26432 2.29092 3.32034 2.10034
threshold=-1.3156614147877697 -1.2173583936496848 9.0173206173233904 1.6064990042500003
decision_type=2 2 2 2
left_child=-1 -2 3 -3
right_child=1 2 -4 -5
leaf_value=-0.27378832093513611 -0.2552534793174126 -0.31284384004512333 0.44672488412868094 0.22661731277404246
leaf_weight=2.3089587688446054 1.6833408419042815 1.8965042512863854 4.2992382342927158 2.1095864847302437
leaf_count=58 22 36 72 38
internal_value=0 0.135681 0.218227 -0.0248243
internal_weight=0 9.98867 8.30533 4.00609
internal_count=226 168 146 74
is_linear=0
shrinkage=0.377249


Tree=10
num_leaves=5
num_cat=0
split_feature=41 39 19 5
split_gain=1.83184 1.8951 2.9784 1.35514
threshold=0.53101628402826517 0.5396224015619181 9.1294748987267973e-06 55.648485000000008
decision_type=2 2 2 2
left_child=1 2 -1 -3
right_child=-2 3 -4 -5
leaf_value=-0.26506179561459697 0.4299209913095664 0.018719360159084091 0.40973820185391258 -0.37201951078769713
leaf_weight=1.3613691553473457 1.4635673994198448 2.3700321596115828 2.5909003177657723 2.4491515960544348
leaf_count=16 31 47 63 69
internal_value=0 -0.0178646 0.172181 -0.177765
internal_weight=0 8.77145 3.95227 4.81918
internal_count=226 195 79 116
is_linear=0
shrinkage=0.377249


Tree=11
num_leaves=7
num_cat=0
split_feature=40 13 22 5 20 8
split_gain=1.50178 1.52634 1.54649 1.8951 0.316213 0.0118325
threshold=2.7474056943046405 3.2567808333333352 0.089394288333333308 55.718198333333355 8.8880922459491671 65.428209877744862
decision_type=2 2 2 2 2 2
left_child=1 -1 5 -4 -5 -3
right_child=-2 2 3 4 -6 -7
leaf_value=0.36625072279485793 0.42256943911352646 -0.37023168132940559 0.40151229345121142 -0.32438178787286986 0 -0.21677175666009899
leaf_weight=1.1206699146423487 1.1975526926107702 1.392631193622947 1.3813101507257672 0.9173960033804176 0.81628126092255116 1.4542813324369488
leaf_count=49 19 25 35 40 23 35
internal_value=0 -0.0245376 -0.103568 0.0750575 -0.178435 -0.303446
internal_weight=0 7.08257 5.9619 3.11499 1.73368 2.84691
internal_count=226 207 158 98 63 60
is_linear=0
shrinkage=0.377249


Tree=12
num_leaves=6
num_cat=0
split_feature=40 14 34 41 10
split_gain=0.941571 1.12298 1.60442 0.866904 0.0545731
threshold=2.7474056943046405 257.85793947552605 9.2430243330439872 0.47026419312813006 96.313730000000007
decision_type=2 2 2 2 2
left_child=1 2 -1 4 -3
right_child=-2 3 -4 -5 -6
leaf_value=0.38047966204919231 0.38800507756313146 -0.36096218650660977 -0.24034317221703216 0.1260852174611142 -0.1623630675893562
leaf_weight=1.6572899138554933 0.88325198972597707 1.3523490820080049 0.82765068300068367 0.89491918496787537 0.92481440305709828
leaf_count=74 19 54 12 25 42
internal_value=0 -0.0186922 0.165601 -0.169247 -0.293633
internal_weight=0 5.65702 2.48494 3.17208 2.27716
internal_count=226 207 86 121 96
is_linear=0
shrinkage=0.377249


Tree=13
num_leaves=6
num_cat=0
split_feature=1 10 13 1 31
split_gain=0.580566 0.989004 0.760556 0.598273 0.269748
threshold=0.48951335540919705 89.910088333333377 3.2567808333333352 0.58334458516226906 51.358751880787004
decision_type=2 2 2 2 2
left_child=1 2 -1 -2 -4
right_child=3 -3 4 -5 -6
leaf_value=0.33232104756156861 -0.33543604603593224 0.38653777806067025 0 0.10713769863562744 -0.27837784591669568
leaf_weight=0.58441702055279243 0.97033911827020325 1.2218781720148397 0.90379473986104109 0.63852160098031163 0.94728175736963749
leaf_count=43 47 38 34 27 37
internal_value=0 0.116131 -0.0169894 -0.150482 -0.143035
internal_weight=0 3.65737 2.43549 1.60886 1.85108
internal_count=226 152 114 74 71
is_linear=0
shrinkage=0.377249


Tree=14
num_leaves=5
num_cat=0
split_feature=16 8 24 16
split_gain=1.36311 1.35676 0.841251 0.202638
threshold=8.0130158814095012 62.882053596036606 150.19915152800004 2.2573825000000002e-05
decision_type=2 2 2 2
left_child=1 3 -2 -1
right_child=2 -3 -4 -5
leaf_value=-0.19587136305784555 -0.31619399156965661 0.48113326448510935 0.14758321752432713 0.094362126453617412
leaf_weight=0.54732761997729562 1.2931321803480389 1.6759704221040008 0.84757710970006872 0.68670847523026168
leaf_count=14 78 65 29 44
internal_value=0 0.264506 -0.124782 -0.0222887
internal_weight=0 2.91001 2.14071 1.23404
internal_count=230 123 107 58
is_linear=0
shrinkage=0.377249


Tree=15
num_leaves=6
num_cat=0
split_feature=7 6 10 5 2
split_gain=1.18598 0.727348 0.597869 0.325704 0.00755886
threshold=40.871475000000011 56.130816666666654 55.951616666666659 55.865370000000006 -1.8883920070719247
decision_type=2 2 2 2 2
left_child=-1 2 -2 4 -3
right_child=1 3 -4 -5 -6
leaf_value=0.45733623456038508 -0.10928767274713955 -0.32680188722247916 0.36275181216973473 0.029208897061144681 -0.11507539017504134
leaf_weight=0.87214227317599569 0.53331507276743673 0.89328366029076256 0.8825586661696434 0.59678204433294002 0.44668326200917363
leaf_count=24 13 53 52 40 48
internal_value=0 -0.0211581 0.174419 -0.174421 -0.276471
internal_weight=0 3.35262 1.41587 1.93675 1.33997
internal_count=230 206 65 141 101
is_linear=0
shrinkage=0.377249


Tree=16
num_leaves=6
num_cat=0
split_feature=7 7 9 2 27
split_gain=0.732382 0.481548 0.799047 0.410154 0.0811974
threshold=40.871475000000011 43.908995000000012 49.999216666666662 -1.8894340654052548 -0.036297339879775299
decision_type=2 2 2 2 2
left_child=-1 4 -3 -4 -2
right_child=1 2 3 -5 -6
leaf_value=0.40638444131214885 -0.022228454229887448 0.35501612088783918 -0.31023879174405383 0.13239165369870187 -0.32167885669382246
leaf_weight=0.66275775525718961 0.3561280753929168 0.84499808930559073 0.63181842630729113 0.41924428450874929 0.58839970035478506
leaf_count=24 19 46 31 49 61
internal_value=0 -0.0159314 0.086501 -0.118558 -0.234533
internal_weight=0 2.84059 1.89606 1.05106 0.944528
internal_count=230 206 126 80 80
is_linear=0
shrinkage=0.377249


end of trees

feature_importances:
kurt_max_min_sound=7
ulf_power_lastday_max_min_magn=6
PC4=5
abs_mean_lastday_mean_magn=4
abs_mean_lastday_min_magn=4
mean_square_frequency_lastday_mean_magn=4
mean_square_frequency_lastday_max_min_magn=4
frequency_entropy_lastday_max_min_magn=4
frequency_center_min_magn=3
mean_square_frequency_min_magn=3
level4d_energy_lastday_mean_magn=3
kurt_lastday_max_min_sound=3
energy_sstd_lastday_mean_magn=2
frequency_center_lastday_min_magn=2
frequency_entropy_max_min_magn=2
ulf_energy_smax_lastday_max_min_magn=2
skew_lastday_max_sound=2
abs_mean_lastday_min_sound=2
mean_square_frequency_lastday_mean_sound=2
frequency_entropy_lastday_mean_sound=2
PC1=2
PC3=2
kurt_day_mean_min_magn=1
energy_sstd_lastday_max_min_magn=1
mean_square_frequency_lastday_min_magn=1
level5d_energy_lastday_max_min_magn=1
ulf_energy_smax_lastday_mean_magn=1
abs_max_max_min_sound=1
s_zero_rate_max_lastday_mean_sound=1
mean_square_frequency_lastday_min_sound=1
mean_square_frequency_lastday_max_min_sound=1
PC2=1
PC5=1

parameters:
[boosting: gbdt]
[objective: binary]
[metric: binary_logloss]
[tree_learner: serial]
[device_type: cpu]
[data: ]
[valid: ]
[num_iterations: 257]
[learning_rate: 0.377249]
[num_leaves: 9]
[num_threads: 6]
[deterministic: 0]
[force_col_wise: 0]
[force_row_wise: 0]
[histogram_pool_size: -1]
[max_depth: -1]
[min_data_in_leaf: 28]
[min_sum_hessian_in_leaf: 0.001]
[bagging_fraction: 0.726077]
[pos_bagging_fraction: 1]
[neg_bagging_fraction: 1]
[bagging_freq: 7]
[bagging_seed: 3]
[feature_fraction: 0.691832]
[feature_fraction_bynode: 1]
[feature_fraction_seed: 2]
[extra_trees: 0]
[extra_seed: 6]
[early_stopping_round: 10]
[first_metric_only: 0]
[max_delta_step: 0]
[lambda_l1: 0.05]
[lambda_l2: 0.05]
[linear_lambda: 0]
[min_gain_to_split: 0]
[drop_rate: 0.1]
[max_drop: 50]
[skip_drop: 0.5]
[xgboost_dart_mode: 0]
[uniform_drop: 0]
[drop_seed: 4]
[top_rate: 0.2]
[other_rate: 0.1]
[min_data_per_group: 100]
[max_cat_threshold: 32]
[cat_l2: 10]
[cat_smooth: 10]
[max_cat_to_onehot: 4]
[top_k: 20]
[monotone_constraints: ]
[monotone_constraints_method: basic]
[monotone_penalty: 0]
[feature_contri: ]
[forcedsplits_filename: ]
[refit_decay_rate: 0.9]
[cegb_tradeoff: 1]
[cegb_penalty_split: 0]
[cegb_penalty_feature_lazy: ]
[cegb_penalty_feature_coupled: ]
[path_smooth: 0]
[interaction_constraints: ]
[verbosity: -1]
[saved_feature_importance_type: 0]
[linear_tree: 0]
[max_bin: 200]
[max_bin_by_feature: ]
[min_data_in_bin: 3]
[bin_construct_sample_cnt: 200000]
[data_random_seed: 1]
[is_enable_sparse: 1]
[enable_bundle: 1]
[use_missing: 1]
[zero_as_missing: 0]
[feature_pre_filter: 0]
[pre_partition: 0]
[two_round: 0]
[header: 0]
[label_column: ]
[weight_column: ]
[group_column: ]
[ignore_column: ]
[categorical_feature: ]
[forcedbins_filename: ]
[precise_float_parser: 0]
[objective_seed: 5]
[num_class: 1]
[is_unbalance: 0]
[scale_pos_weight: 1]
[sigmoid: 1]
[boost_from_average: 1]
[reg_sqrt: 0]
[alpha: 0.9]
[fair_c: 1]
[poisson_max_delta_step: 0.7]
[tweedie_variance_power: 1.5]
[lambdarank_truncation_level: 30]
[lambdarank_norm: 1]
[label_gain: ]
[eval_at: ]
[multi_error_top_k: 1]
[auc_mu_weights: ]
[num_machines: 1]
[local_listen_port: 12400]
[time_out: 120]
[machine_list_filename: ]
[machines: ]
[gpu_platform_id: -1]
[gpu_device_id: -1]
[gpu_use_dp: 0]
[num_gpu: 1]

end of parameters

pandas_categorical:[]
